solver_type L2R_LR
nr_class 2
label 0 1
nr_feature 300
bias -1
w
0.6143332935297683 
0.2865277402387976 
-0.4285136423515815 
1.411520914103047 
0.4646639039830658 
-0.4553320237289593 
0.5861791859856101 
-0.2831399168201705 
-0.8510965162603125 
-0.4376449961546595 
-0.1419537530202805 
-0.2117417947566593 
-0.7151299039123368 
0.01053229535114508 
0.2972248122917087 
-0.1083713682663702 
0.8104124814392232 
-0.3145645762906375 
0.4508324935352492 
-1.603318334589363 
-0.5201188770945007 
0.8178634572232816 
-0.1815197546740473 
-0.4477568056665273 
-0.05109866408144653 
-0.3699971770456724 
0.3821226345492597 
-0.01054271156798381 
-0.02585589096148999 
0.5268713959663874 
1.428714284052866 
0.7488246485949808 
0.5289301545904974 
-0.5084969315413513 
-0.3873846472442528 
-0.3069799896356704 
-0.540531421148049 
0.9242700226821956 
0.6214276083540642 
0.1870398890853735 
-0.692658007605916 
0.3177852188362395 
0.6544704023511135 
0.009154334236611363 
-0.2286900705314179 
-0.2316958683335263 
-0.048128519076882 
-0.3388857991104614 
0.6427340585183288 
0.4692722250268664 
1.137815775277406 
0.7875234343131005 
-0.7254343798361864 
-0.1224189770401926 
-0.3793582304057109 
0.8329724139689777 
0.4259811753848217 
0.3332690771934423 
-0.01343362769200273 
0.5993896664836604 
-0.205203935136519 
-0.9599823885681694 
0.009538342498220276 
-0.1837310674157839 
0.03162166986252598 
-0.6702549066599408 
0.5674608079033655 
-0.3135641419440028 
-0.5110377224950221 
-0.1478680084701793 
-0.1748518454197542 
0.6748971881259368 
-0.003834927961636418 
0.9712404693629847 
0.6090392554034377 
0.1511726242848859 
0.4923570008663215 
0.2375804515942312 
-0.2140954066156109 
-0.5314616795907127 
-0.5222406555843012 
0.3047895259468565 
0.0472858066365662 
-0.1864608646442612 
-0.6031808617066998 
0.1605110268552994 
-0.4953447985447531 
0.2258000032491045 
0.2090958353715607 
-0.4096581154411866 
0.1344408131007173 
0.4381368831108781 
-0.1686666220344098 
-0.1323458841833904 
-0.01710638851047506 
0.8348273844790014 
-0.09637167908715272 
0.5008140414234443 
-0.1662747364502341 
0.266257844080775 
-0.4620671744534544 
-0.3319721115541651 
0.1960363215993577 
-0.3739399749186405 
0.2061214099703116 
0.1229112421664469 
-0.01509421277598818 
0.09533494393992879 
0.9130323929127124 
-0.06040035648238545 
-0.05461811508436548 
-0.3850363637531771 
0.3153535694429026 
-0.5144174455007545 
0.2843008732395524 
0.02446920909427327 
-0.95796843793803 
0.04651413743303316 
1.017614721104315 
0.09821788499439482 
-0.5227269938873319 
0.2092544285279708 
-0.005768086500734569 
0.05740288552367561 
-0.4191009350801285 
0.1758827641241748 
0.05096674105703043 
-0.3285627677085521 
0.4750702309340887 
1.284556100530077 
0.04049272759667548 
-0.04864332847918056 
-0.1550734873553619 
-0.3402321415627291 
-0.4284703932663767 
-0.07933436615119832 
-0.5019634747941825 
-0.1306635338592244 
0.566196772431303 
-0.8233100424617819 
0.2679812259916899 
-0.8292018767999337 
0.7145207018825361 
-0.2027993930045723 
0.411455033544512 
0.5591806578132286 
0.07437471520684734 
0.09746833657469452 
0.4990939095705729 
-0.9681329017543743 
-0.2567268226724273 
0.3263365266807368 
0.5241368564520113 
-0.3093882536808401 
0.224663489165972 
0.08086452230424501 
0.9760025914077738 
-0.4335645101427418 
-0.06699941344608483 
0.1806034275447807 
-0.2037612731385842 
0.2712563830537 
0.1047392426324252 
0.03257912395123495 
0.009249281091133599 
0.1847347631461881 
-0.7857775657732692 
0.3218283901851637 
-0.1794695390430692 
0.1037047982229586 
0.3634782510331028 
0.4478216948911996 
0.9996252958222086 
0.4353909384993962 
0.2410156685729031 
-0.6418215839506184 
-0.4131373300449293 
-0.3932119611566274 
-0.1285088713139134 
-0.03679575688800395 
0.5000175364908728 
0.8427729152892972 
0.1546501227382257 
-0.0460335444227194 
0.4079391744259556 
0.3064019143414314 
0.3308049202724547 
0.5822529861987608 
-0.1140466013873391 
0.4136680458278128 
-0.6585945583639886 
0.322862585724266 
-0.749210552729854 
0.1353588318591317 
0.5220946882875651 
-0.1458200381235704 
-0.5316305288795062 
0.05307703349568305 
0.7550203200271627 
-0.9816907355271393 
-0.0205515715130496 
0.06752894866643748 
0.03430854376504702 
-0.4816109866895538 
0.02713416605638175 
-0.3727938241625236 
-0.1057524655728041 
-0.1910071309272289 
0.1375082986152349 
0.9470865790044775 
0.2922166244723941 
-0.1738273327654848 
0.7759287545489496 
-0.5581559052195431 
0.6122122664637352 
0.3815067342066633 
0.1455497926318088 
-0.1143760715742025 
-0.746825249760107 
-0.03818590175494883 
-0.2870431280840791 
-0.3463206009441461 
-0.6633159962079073 
-0.02192626055032297 
-0.3188104351487799 
-0.1999152370881352 
-0.2769849338779358 
-0.3172763517798564 
-0.2486349195935639 
0.3376011023514277 
0.1457775483741239 
0.5824104827739303 
0.6615872847044573 
-0.1295092660811447 
0.9706948827641251 
0.3971439406832575 
0.1260631758667869 
-0.2867468593788304 
-0.08897487750352121 
0.7603878385599358 
-0.1348004465968636 
0.3912356281931559 
0.1445494046155169 
-0.6038660889299973 
-0.6520622601152423 
-0.3279649636632664 
0.4452327101259157 
-0.4255771178920519 
-0.2818837739800877 
-0.115372579924494 
-0.03426599962452277 
-0.02414902144980578 
0.2083720939093864 
0.1977479590067008 
0.2595772831820277 
-0.010399232356594 
-0.2697105035620696 
-0.02777152687229328 
0.1442255360022875 
0.04702617717738505 
0.7263023279209712 
1.209684497409606 
-0.7690230389493488 
0.2080775139818316 
0.08059944306770772 
0.1657391502090508 
0.4826682539633178 
-0.3748274164175402 
0.07861200461263075 
-0.2203353904582409 
-0.6553299398448034 
-0.2295694719365729 
-0.1471374614225869 
-0.3517874170688727 
0.9716726504266285 
-0.8068156719159343 
0.2955449055611744 
-0.1063461324542107 
-0.06887800782308157 
-0.03020949175864411 
0.3624898729276997 
-0.5025753391365497 
0.2075925167563621 
0.379941017245897 
0.2181041656934116 
0.2281017694405741 
-0.08091610008038418 
0.2894657115342349 
-0.2766140091644324 
-0.03364110419966339 
-0.4518655727827995 
0.5163068869944065 
0.3151615160829082 
1.742697358376949 
-0.07520158031017274 
-0.2292947580782911 
0.2442484011289887 
-0.2133725020279419 
0.5154276632163504 
-0.1807231292911565 
